<?xml version="1.0"?>
<opencv_storage>
<cascade>
  <stageType>BOOST</stageType>
  <featureType>HAAR</featureType>
  <height>24</height>
  <width>24</width>
  <stageParams>
    <boostType>GAB</boostType>
    <minHitRate>9.9500000476837158e-01</minHitRate>
    <maxFalseAlarm>5.0000000000000000e-01</maxFalseAlarm>
    <weightTrimRate>9.4999999999999996e-01</weightTrimRate>
    <maxDepth>1</maxDepth>
    <maxWeakCount>100</maxWeakCount></stageParams>
  <featureParams>
    <maxCatCount>0</maxCatCount>
    <featSize>1</featSize>
    <mode>BASIC</mode></featureParams>
  <stageNum>12</stageNum>
  <stages>
    <!-- stage 0 -->
    <_>
      <maxWeakCount>2</maxWeakCount>
      <stageThreshold>-9.5554786920547485e-01</stageThreshold>
      <weakClassifiers>
        <_>
          <internalNodes>
            0 -1 26 1.1295491829514503e-02</internalNodes>
          <leafValues>
            -9.6385544538497925e-01 0.</leafValues></_>
        <_>
          <internalNodes>
            0 -1 28 1.8187777604907751e-03</internalNodes>
          <leafValues>
            -9.5554786920547485e-01 1.7358134686946869e-01</leafValues></_></weakClassifiers></_>
    <!-- stage 1 -->
    <_>
      <maxWeakCount>4</maxWeakCount>
      <stageThreshold>-1.8655897378921509e+00</stageThreshold>
      <weakClassifiers>
        <_>
          <internalNodes>
            0 -1 17 -8.2234852015972137e-03</internalNodes>
          <leafValues>
            1. -9.3798446655273438e-01</leafValues></_>
        <_>
          <internalNodes>
            0 -1 37 1.8828855827450752e-02</internalNodes>
          <leafValues>
            -7.8352874517440796e-01 4.8127722740173340e-01</leafValues></_>
        <_>
          <internalNodes>
            0 -1 14 9.6075644250959158e-04</internalNodes>
          <leafValues>
            -6.7601501941680908e-01 5.4361712932586670e-01</leafValues></_>
        <_>
          <internalNodes>
            0 -1 21 1.1063348501920700e-03</internalNodes>
          <leafValues>
            -6.6176903247833252e-01 5.3193849325180054e-01</leafValues></_></weakClassifiers></_>
    <!-- stage 2 -->
    <_>
      <maxWeakCount>4</maxWeakCount>
      <stageThreshold>-1.8871321678161621e+00</stageThreshold>
      <weakClassifiers>
        <_>
          <internalNodes>
            0 -1 39 -4.1180394589900970e-02</internalNodes>
          <leafValues>
            7.1428573131561279e-01 -9.4541913270950317e-01</leafValues></_>
        <_>
          <internalNodes>
            0 -1 38 -9.7140204161405563e-03</internalNodes>
          <leafValues>
            4.1940206289291382e-01 -8.0803734064102173e-01</leafValues></_>
        <_>
          <internalNodes>
            0 -1 18 -2.3467317223548889e-03</internalNodes>
          <leafValues>
            6.2945872545242310e-01 -6.7037856578826904e-01</leafValues></_>
        <_>
          <internalNodes>
            0 -1 20 2.1344283595681190e-02</internalNodes>
          <leafValues>
            -6.4469391107559204e-01 5.3670281171798706e-01</leafValues></_></weakClassifiers></_>
    <!-- stage 3 -->
    <_>
      <maxWeakCount>3</maxWeakCount>
      <stageThreshold>-1.4303861856460571e+00</stageThreshold>
      <weakClassifiers>
        <_>
          <internalNodes>
            0 -1 24 -8.2417324185371399e-02</internalNodes>
          <leafValues>
            1. -9.3423599004745483e-01</leafValues></_>
        <_>
          <internalNodes>
            0 -1 33 -8.2324780523777008e-03</internalNodes>
          <leafValues>
            3.4668400883674622e-01 -7.6129025220870972e-01</leafValues></_>
        <_>
          <internalNodes>
            0 -1 27 -4.1349409148097038e-03</internalNodes>
          <leafValues>
            2.6514011621475220e-01 -7.8399688005447388e-01</leafValues></_></weakClassifiers></_>
    <!-- stage 4 -->
    <_>
      <maxWeakCount>4</maxWeakCount>
      <stageThreshold>-1.8415762186050415e+00</stageThreshold>
      <weakClassifiers>
        <_>
          <internalNodes>
            0 -1 2 -3.8140714168548584e-02</internalNodes>
          <leafValues>
            4.2857143282890320e-01 -9.4152045249938965e-01</leafValues></_>
        <_>
          <internalNodes>
            0 -1 13 -2.0544013008475304e-02</internalNodes>
          <leafValues>
            4.2280757427215576e-01 -7.5775313377380371e-01</leafValues></_>
        <_>
          <internalNodes>
            0 -1 19 3.8938634097576141e-02</internalNodes>
          <leafValues>
            -5.5466699600219727e-01 5.4559922218322754e-01</leafValues></_>
        <_>
          <internalNodes>
            0 -1 35 -4.4030144636053592e-05</internalNodes>
          <leafValues>
            4.1236433386802673e-01 -6.6250568628311157e-01</leafValues></_></weakClassifiers></_>
    <!-- stage 5 -->
    <_>
      <maxWeakCount>5</maxWeakCount>
      <stageThreshold>-1.4940056800842285e+00</stageThreshold>
      <weakClassifiers>
        <_>
          <internalNodes>
            0 -1 0 -2.4331066757440567e-02</internalNodes>
          <leafValues>
            2.5000000000000000e-01 -9.4140625000000000e-01</leafValues></_>
        <_>
          <internalNodes>
            0 -1 12 -1.8245569663122296e-03</internalNodes>
          <leafValues>
            3.9454546570777893e-01 -7.4507218599319458e-01</leafValues></_>
        <_>
          <internalNodes>
            0 -1 16 1.8076375126838684e-02</internalNodes>
          <leafValues>
            -4.7841814160346985e-01 6.7034286260604858e-01</leafValues></_>
        <_>
          <internalNodes>
            0 -1 3 7.1451664553023875e-05</internalNodes>
          <leafValues>
            3.2441926002502441e-01 -9.1049790382385254e-01</leafValues></_>
        <_>
          <internalNodes>
            0 -1 29 -2.7533329557627439e-04</internalNodes>
          <leafValues>
            -6.7652761936187744e-01 3.4647172689437866e-01</leafValues></_></weakClassifiers></_>
    <!-- stage 6 -->
    <_>
      <maxWeakCount>4</maxWeakCount>
      <stageThreshold>-1.8652896881103516e+00</stageThreshold>
      <weakClassifiers>
        <_>
          <internalNodes>
            0 -1 9 4.2248282581567764e-02</internalNodes>
          <leafValues>
            -9.4174754619598389e-01 1.</leafValues></_>
        <_>
          <internalNodes>
            0 -1 7 -6.4996004104614258e-02</internalNodes>
          <leafValues>
            8.9136324822902679e-02 -8.1660586595535278e-01</leafValues></_>
        <_>
          <internalNodes>
            0 -1 32 1.2702224776148796e-03</internalNodes>
          <leafValues>
            -5.3680777549743652e-01 6.1226147413253784e-01</leafValues></_>
        <_>
          <internalNodes>
            0 -1 25 3.2389245461672544e-04</internalNodes>
          <leafValues>
            -7.1919775009155273e-01 4.5448413491249084e-01</leafValues></_></weakClassifiers></_>
    <!-- stage 7 -->
    <_>
      <maxWeakCount>3</maxWeakCount>
      <stageThreshold>-1.5287206172943115e+00</stageThreshold>
      <weakClassifiers>
        <_>
          <internalNodes>
            0 -1 6 -2.5980103015899658e-01</internalNodes>
          <leafValues>
            1. -9.3423599004745483e-01</leafValues></_>
        <_>
          <internalNodes>
            0 -1 7 -6.4968883991241455e-02</internalNodes>
          <leafValues>
            2.9848399758338928e-01 -7.8010594844818115e-01</leafValues></_>
        <_>
          <internalNodes>
            0 -1 34 -9.3393732095137239e-04</internalNodes>
          <leafValues>
            -8.8228940963745117e-01 1.8562139570713043e-01</leafValues></_></weakClassifiers></_>
    <!-- stage 8 -->
    <_>
      <maxWeakCount>3</maxWeakCount>
      <stageThreshold>-1.6283042430877686e+00</stageThreshold>
      <weakClassifiers>
        <_>
          <internalNodes>
            0 -1 8 -3.4005373716354370e-01</internalNodes>
          <leafValues>
            6.0000002384185791e-01 -9.3786406517028809e-01</leafValues></_>
        <_>
          <internalNodes>
            0 -1 23 6.0896938666701317e-03</internalNodes>
          <leafValues>
            -7.9845702648162842e-01 1.2155167013406754e-01</leafValues></_>
        <_>
          <internalNodes>
            0 -1 40 -1.6415970458183438e-04</internalNodes>
          <leafValues>
            2.6304084062576294e-01 -8.1199187040328979e-01</leafValues></_></weakClassifiers></_>
    <!-- stage 9 -->
    <_>
      <maxWeakCount>5</maxWeakCount>
      <stageThreshold>-1.7662744522094727e+00</stageThreshold>
      <weakClassifiers>
        <_>
          <internalNodes>
            0 -1 4 -4.5069375634193420e-01</internalNodes>
          <leafValues>
            1. -9.3423599004745483e-01</leafValues></_>
        <_>
          <internalNodes>
            0 -1 36 7.9419255256652832e-02</internalNodes>
          <leafValues>
            -7.8010594844818115e-01 2.9848399758338928e-01</leafValues></_>
        <_>
          <internalNodes>
            0 -1 5 -2.0201027393341064e-02</internalNodes>
          <leafValues>
            4.7010454535484314e-01 -6.2242215871810913e-01</leafValues></_>
        <_>
          <internalNodes>
            0 -1 30 -1.3296064025780652e-05</internalNodes>
          <leafValues>
            -9.3966937065124512e-01 3.0943512916564941e-01</leafValues></_>
        <_>
          <internalNodes>
            0 -1 41 -5.5982563644647598e-03</internalNodes>
          <leafValues>
            -1. 2.6105448603630066e-01</leafValues></_></weakClassifiers></_>
    <!-- stage 10 -->
    <_>
      <maxWeakCount>3</maxWeakCount>
      <stageThreshold>-1.3923721313476562e+00</stageThreshold>
      <weakClassifiers>
        <_>
          <internalNodes>
            0 -1 31 4.1686907410621643e-02</internalNodes>
          <leafValues>
            -9.4552528858184814e-01 1.</leafValues></_>
        <_>
          <internalNodes>
            0 -1 15 -3.0596539378166199e-02</internalNodes>
          <leafValues>
            4.8705032467842102e-01 -8.2509177923202515e-01</leafValues></_>
        <_>
          <internalNodes>
            0 -1 11 -2.9508485458791256e-03</internalNodes>
          <leafValues>
            3.7824493646621704e-01 -7.7358257770538330e-01</leafValues></_></weakClassifiers></_>
    <!-- stage 11 -->
    <_>
      <maxWeakCount>3</maxWeakCount>
      <stageThreshold>-9.6064633131027222e-01</stageThreshold>
      <weakClassifiers>
        <_>
          <internalNodes>
            0 -1 10 3.3753722906112671e-02</internalNodes>
          <leafValues>
            -9.5694714784622192e-01 1.</leafValues></_>
        <_>
          <internalNodes>
            0 -1 22 -4.0452759712934494e-02</internalNodes>
          <leafValues>
            1. -8.7301975488662720e-01</leafValues></_>
        <_>
          <internalNodes>
            0 -1 1 1.8551496323198080e-03</internalNodes>
          <leafValues>
            -7.3640400171279907e-01 8.6932063102722168e-01</leafValues></_></weakClassifiers></_></stages>
  <features>
    <_>
      <rects>
        <_>
          0 0 2 14 -1.</_>
        <_>
          1 0 1 14 2.</_></rects>
      <tilted>0</tilted></_>
    <_>
      <rects>
        <_>
          0 0 10 2 -1.</_>
        <_>
          0 0 5 1 2.</_>
        <_>
          5 1 5 1 2.</_></rects>
      <tilted>0</tilted></_>
    <_>
      <rects>
        <_>
          0 1 2 22 -1.</_>
        <_>
          1 1 1 22 2.</_></rects>
      <tilted>0</tilted></_>
    <_>
      <rects>
        <_>
          0 1 2 3 -1.</_>
        <_>
          0 2 2 1 3.</_></rects>
      <tilted>0</tilted></_>
    <_>
      <rects>
        <_>
          0 1 24 22 -1.</_>
        <_>
          0 1 12 11 2.</_>
        <_>
          12 12 12 11 2.</_></rects>
      <tilted>0</tilted></_>
    <_>
      <rects>
        <_>
          0 2 23 4 -1.</_>
        <_>
          0 4 23 2 2.</_></rects>
      <tilted>0</tilted></_>
    <_>
      <rects>
        <_>
          0 3 16 20 -1.</_>
        <_>
          0 3 8 10 2.</_>
        <_>
          8 13 8 10 2.</_></rects>
      <tilted>0</tilted></_>
    <_>
      <rects>
        <_>
          0 5 10 5 -1.</_>
        <_>
          5 5 5 5 2.</_></rects>
      <tilted>0</tilted></_>
    <_>
      <rects>
        <_>
          0 10 24 9 -1.</_>
        <_>
          8 10 8 9 3.</_></rects>
      <tilted>0</tilted></_>
    <_>
      <rects>
        <_>
          1 2 1 22 -1.</_>
        <_>
          1 13 1 11 2.</_></rects>
      <tilted>0</tilted></_>
    <_>
      <rects>
        <_>
          1 9 9 6 -1.</_>
        <_>
          4 9 3 6 3.</_></rects>
      <tilted>0</tilted></_>
    <_>
      <rects>
        <_>
          1 18 9 1 -1.</_>
        <_>
          4 18 3 1 3.</_></rects>
      <tilted>0</tilted></_>
    <_>
      <rects>
        <_>
          1 20 2 1 -1.</_>
        <_>
          2 20 1 1 2.</_></rects>
      <tilted>0</tilted></_>
    <_>
      <rects>
        <_>
          2 6 12 1 -1.</_>
        <_>
          6 6 4 1 3.</_></rects>
      <tilted>0</tilted></_>
    <_>
      <rects>
        <_>
          2 22 3 2 -1.</_>
        <_>
          2 23 3 1 2.</_></rects>
      <tilted>0</tilted></_>
    <_>
      <rects>
        <_>
          3 6 10 8 -1.</_>
        <_>
          3 6 5 4 2.</_>
        <_>
          8 10 5 4 2.</_></rects>
      <tilted>0</tilted></_>
    <_>
      <rects>
        <_>
          4 21 19 2 -1.</_>
        <_>
          4 22 19 1 2.</_></rects>
      <tilted>0</tilted></_>
    <_>
      <rects>
        <_>
          6 14 4 1 -1.</_>
        <_>
          8 14 2 1 2.</_></rects>
      <tilted>0</tilted></_>
    <_>
      <rects>
        <_>
          8 7 2 4 -1.</_>
        <_>
          8 7 1 2 2.</_>
        <_>
          9 9 1 2 2.</_></rects>
      <tilted>0</tilted></_>
    <_>
      <rects>
        <_>
          8 7 12 10 -1.</_>
        <_>
          8 7 6 5 2.</_>
        <_>
          14 12 6 5 2.</_></rects>
      <tilted>0</tilted></_>
    <_>
      <rects>
        <_>
          8 12 12 4 -1.</_>
        <_>
          14 12 6 4 2.</_></rects>
      <tilted>0</tilted></_>
    <_>
      <rects>
        <_>
          8 13 2 10 -1.</_>
        <_>
          8 13 1 5 2.</_>
        <_>
          9 18 1 5 2.</_></rects>
      <tilted>0</tilted></_>
    <_>
      <rects>
        <_>
          9 11 12 10 -1.</_>
        <_>
          13 11 4 10 3.</_></rects>
      <tilted>0</tilted></_>
    <_>
      <rects>
        <_>
          9 17 4 4 -1.</_>
        <_>
          9 19 4 2 2.</_></rects>
      <tilted>0</tilted></_>
    <_>
      <rects>
        <_>
          9 17 15 3 -1.</_>
        <_>
          14 17 5 3 3.</_></rects>
      <tilted>0</tilted></_>
    <_>
      <rects>
        <_>
          10 2 2 21 -1.</_>
        <_>
          10 9 2 7 3.</_></rects>
      <tilted>0</tilted></_>
    <_>
      <rects>
        <_>
          10 4 3 16 -1.</_>
        <_>
          11 4 1 16 3.</_></rects>
      <tilted>0</tilted></_>
    <_>
      <rects>
        <_>
          10 8 14 8 -1.</_>
        <_>
          10 8 7 4 2.</_>
        <_>
          17 12 7 4 2.</_></rects>
      <tilted>0</tilted></_>
    <_>
      <rects>
        <_>
          12 5 3 5 -1.</_>
        <_>
          13 5 1 5 3.</_></rects>
      <tilted>0</tilted></_>
    <_>
      <rects>
        <_>
          12 14 3 4 -1.</_>
        <_>
          12 16 3 2 2.</_></rects>
      <tilted>0</tilted></_>
    <_>
      <rects>
        <_>
          13 0 3 1 -1.</_>
        <_>
          14 0 1 1 3.</_></rects>
      <tilted>0</tilted></_>
    <_>
      <rects>
        <_>
          14 12 10 4 -1.</_>
        <_>
          19 12 5 4 2.</_></rects>
      <tilted>0</tilted></_>
    <_>
      <rects>
        <_>
          15 5 1 3 -1.</_>
        <_>
          15 6 1 1 3.</_></rects>
      <tilted>0</tilted></_>
    <_>
      <rects>
        <_>
          15 9 2 8 -1.</_>
        <_>
          16 9 1 8 2.</_></rects>
      <tilted>0</tilted></_>
    <_>
      <rects>
        <_>
          15 11 9 6 -1.</_>
        <_>
          15 13 9 2 3.</_></rects>
      <tilted>0</tilted></_>
    <_>
      <rects>
        <_>
          16 7 2 2 -1.</_>
        <_>
          16 7 1 1 2.</_>
        <_>
          17 8 1 1 2.</_></rects>
      <tilted>0</tilted></_>
    <_>
      <rects>
        <_>
          16 10 8 12 -1.</_>
        <_>
          20 10 4 12 2.</_></rects>
      <tilted>0</tilted></_>
    <_>
      <rects>
        <_>
          18 15 6 2 -1.</_>
        <_>
          21 15 3 2 2.</_></rects>
      <tilted>0</tilted></_>
    <_>
      <rects>
        <_>
          20 9 3 7 -1.</_>
        <_>
          21 9 1 7 3.</_></rects>
      <tilted>0</tilted></_>
    <_>
      <rects>
        <_>
          21 0 3 16 -1.</_>
        <_>
          22 0 1 16 3.</_></rects>
      <tilted>0</tilted></_>
    <_>
      <rects>
        <_>
          21 21 3 3 -1.</_>
        <_>
          22 21 1 3 3.</_></rects>
      <tilted>0</tilted></_>
    <_>
      <rects>
        <_>
          22 11 2 10 -1.</_>
        <_>
          22 16 2 5 2.</_></rects>
      <tilted>0</tilted></_></features></cascade>
</opencv_storage>
