<?xml version="1.0"?>
<opencv_storage>
<stage9>
  <maxWeakCount>5</maxWeakCount>
  <stageThreshold>-1.7662744522094727e+00</stageThreshold>
  <weakClassifiers>
    <_>
      <internalNodes>
        0 -1 1899 -4.5069375634193420e-01</internalNodes>
      <leafValues>
        1. -9.3423599004745483e-01</leafValues></_>
    <_>
      <internalNodes>
        0 -1 146995 7.9419255256652832e-02</internalNodes>
      <leafValues>
        -7.8010594844818115e-01 2.9848399758338928e-01</leafValues></_>
    <_>
      <internalNodes>
        0 -1 3098 -2.0201027393341064e-02</internalNodes>
      <leafValues>
        4.7010454535484314e-01 -6.2242215871810913e-01</leafValues></_>
    <_>
      <internalNodes>
        0 -1 128042 -1.3296064025780652e-05</internalNodes>
      <leafValues>
        -9.3966937065124512e-01 3.0943512916564941e-01</leafValues></_>
    <_>
      <internalNodes>
        0 -1 161868 -5.5982563644647598e-03</internalNodes>
      <leafValues>
        -1. 2.6105448603630066e-01</leafValues></_></weakClassifiers></stage9>
</opencv_storage>
