<?xml version="1.0"?>
<opencv_storage>
<stage5>
  <maxWeakCount>5</maxWeakCount>
  <stageThreshold>-1.4940056800842285e+00</stageThreshold>
  <weakClassifiers>
    <_>
      <internalNodes>
        0 -1 58 -2.4331066757440567e-02</internalNodes>
      <leafValues>
        2.5000000000000000e-01 -9.4140625000000000e-01</leafValues></_>
    <_>
      <internalNodes>
        0 -1 25442 -1.8245569663122296e-03</internalNodes>
      <leafValues>
        3.9454546570777893e-01 -7.4507218599319458e-01</leafValues></_>
    <_>
      <internalNodes>
        0 -1 60354 1.8076375126838684e-02</internalNodes>
      <leafValues>
        -4.7841814160346985e-01 6.7034286260604858e-01</leafValues></_>
    <_>
      <internalNodes>
        0 -1 1182 7.1451664553023875e-05</internalNodes>
      <leafValues>
        3.2441926002502441e-01 -9.1049790382385254e-01</leafValues></_>
    <_>
      <internalNodes>
        0 -1 126932 -2.7533329557627439e-04</internalNodes>
      <leafValues>
        -6.7652761936187744e-01 3.4647172689437866e-01</leafValues></_></weakClassifiers></stage5>
</opencv_storage>
